<?xml version="1.0"?>
<opencv_storage>
<cascade>
  <stageType>BOOST</stageType>
  <featureType>HAAR</featureType>
  <height>46</height>
  <width>38</width>
  <stageParams>
    <boostType>GAB</boostType>
    <minHitRate>9.9500000476837158e-01</minHitRate>
    <maxFalseAlarm>5.0000000000000000e-01</maxFalseAlarm>
    <weightTrimRate>9.4999998807907104e-01</weightTrimRate>
    <maxDepth>1</maxDepth>
    <maxWeakCount>100</maxWeakCount></stageParams>
  <featureParams>
    <maxCatCount>0</maxCatCount>
    <featSize>1</featSize>
    <mode>BASIC</mode></featureParams>
  <stageNum>2</stageNum>
  <stages>
    <!-- stage 0 -->
    <_>
      <maxWeakCount>3</maxWeakCount>
      <stageThreshold>-1.0997447967529297e+00</stageThreshold>
      <weakClassifiers>
        <_>
          <internalNodes>
            0 -1 3 1.7823372036218643e-02</internalNodes>
          <leafValues>
            -9.6610170602798462e-01 9.3939393758773804e-01</leafValues></_>
        <_>
          <internalNodes>
            0 -1 1 7.1344189345836639e-02</internalNodes>
          <leafValues>
            -9.0927398204803467e-01 1.</leafValues></_>
        <_>
          <internalNodes>
            0 -1 2 3.2309293746948242e-03</internalNodes>
          <leafValues>
            -9.5269519090652466e-01 7.7563089132308960e-01</leafValues></_></weakClassifiers></_>
    <!-- stage 1 -->
    <_>
      <maxWeakCount>1</maxWeakCount>
      <stageThreshold>1.</stageThreshold>
      <weakClassifiers>
        <_>
          <internalNodes>
            0 -1 0 -5.5107105523347855e-02</internalNodes>
          <leafValues>
            -1. 1.</leafValues></_></weakClassifiers></_></stages>
  <features>
    <_>
      <rects>
        <_>
          0 9 20 26 -1.</_>
        <_>
          0 22 20 13 2.</_></rects>
      <tilted>0</tilted></_>
    <_>
      <rects>
        <_>
          9 0 18 44 -1.</_>
        <_>
          15 0 6 44 3.</_></rects>
      <tilted>0</tilted></_>
    <_>
      <rects>
        <_>
          18 11 6 6 -1.</_>
        <_>
          21 11 3 6 2.</_></rects>
      <tilted>0</tilted></_>
    <_>
      <rects>
        <_>
          22 2 14 33 -1.</_>
        <_>
          29 2 7 33 2.</_></rects>
      <tilted>0</tilted></_></features></cascade>
</opencv_storage>
