<?xml version="1.0"?>
<opencv_storage>
<cascade>
  <stageType>BOOST</stageType>
  <featureType>HAAR</featureType>
  <height>46</height>
  <width>38</width>
  <stageParams>
    <boostType>GAB</boostType>
    <minHitRate>9.9500000476837158e-01</minHitRate>
    <maxFalseAlarm>5.0000000000000000e-01</maxFalseAlarm>
    <weightTrimRate>9.4999998807907104e-01</weightTrimRate>
    <maxDepth>1</maxDepth>
    <maxWeakCount>100</maxWeakCount></stageParams>
  <featureParams>
    <maxCatCount>0</maxCatCount>
    <featSize>1</featSize>
    <mode>BASIC</mode></featureParams>
  <stageNum>2</stageNum>
  <stages>
    <!-- stage 0 -->
    <_>
      <maxWeakCount>3</maxWeakCount>
      <stageThreshold>-9.9656021595001221e-01</stageThreshold>
      <weakClassifiers>
        <_>
          <internalNodes>
            0 -1 3 2.9771460685878992e-03</internalNodes>
          <leafValues>
            -9.6619719266891479e-01 9.6923077106475830e-01</leafValues></_>
        <_>
          <internalNodes>
            0 -1 2 8.9263413101434708e-03</internalNodes>
          <leafValues>
            -9.3408930301666260e-01 8.6049026250839233e-01</leafValues></_>
        <_>
          <internalNodes>
            0 -1 1 -1.9135192036628723e-02</internalNodes>
          <leafValues>
            9.7452801465988159e-01 -8.9085328578948975e-01</leafValues></_></weakClassifiers></_>
    <!-- stage 1 -->
    <_>
      <maxWeakCount>1</maxWeakCount>
      <stageThreshold>1.</stageThreshold>
      <weakClassifiers>
        <_>
          <internalNodes>
            0 -1 0 -3.8434032350778580e-02</internalNodes>
          <leafValues>
            -1. 1.</leafValues></_></weakClassifiers></_></stages>
  <features>
    <_>
      <rects>
        <_>
          0 1 11 40 -1.</_>
        <_>
          0 21 11 20 2.</_></rects>
      <tilted>0</tilted></_>
    <_>
      <rects>
        <_>
          20 20 8 21 -1.</_>
        <_>
          24 20 4 21 2.</_></rects>
      <tilted>0</tilted></_>
    <_>
      <rects>
        <_>
          21 6 14 22 -1.</_>
        <_>
          28 6 7 22 2.</_></rects>
      <tilted>0</tilted></_>
    <_>
      <rects>
        <_>
          25 3 8 43 -1.</_>
        <_>
          29 3 4 43 2.</_></rects>
      <tilted>0</tilted></_></features></cascade>
</opencv_storage>
